{
  "features_info":
    {
      "float_features":
        [
          {
            "borders":
              [
                -499.29000854492188,
                0.54500001668930054,
                0.78999996185302734,
                0.875,
                1.5,
                3.5,
                4.5,
                5.5,
                6.5,
                9.5,
                11.5,
                14.25,
                14.75,
                15.5,
                16.5,
                19.5,
                20.25,
                20.75,
                21.5,
                22.5,
                23.25,
                24.25,
                25.5,
                26.5,
                28.75,
                30.25,
                32.25,
                32.75,
                35.5,
                36.5,
                37.5,
                39.5,
                40.25,
                42.5,
                43.5,
                44.5,
                46.5,
                48.5,
                50.5,
                52.5,
                62.5,
                72.5
              ],
            "feature_index":0,
            "flat_feature_index":0,
            "has_nans":false,
            "nan_value_treatment":"AsIs"
          },
          {
            "borders":
              [
                6.9979000091552734,
                7.0479001998901367,
                7.0521001815795898,
                7.1333498954772949,
                7.2270998954772949,
                7.7312498092651367,
                7.7437500953674316,
                7.7624998092651367,
                8.0396003723144531,
                8.4874992370605469,
                8.6729001998901367,
                9.1125001907348633,
                9.8312492370605469,
                10.481249809265137,
                11.1875,
                12.3125,
                13.20835018157959,
                13.45835018157959,
                13.860400199890137,
                14.054149627685547,
                14.47914981842041,
                15.022899627685547,
                15.172900199890137,
                15.745849609375,
                15.800000190734863,
                17.899999618530273,
                18.768749237060547,
                19.379150390625,
                22.762500762939453,
                23.350000381469727,
                24.075000762939453,
                26.125,
                26.285400390625,
                27.735401153564453,
                48.299999237060547,
                49.752098083496094,
                50.247901916503906,
                51.670848846435547,
                52.277099609375,
                55.450000762939453,
                56.747901916503906,
                57.489601135253906,
                62.668746948242188,
                71.141647338867188,
                76.510452270507813,
                78.112503051757813,
                78.558349609375,
                79.425003051757813,
                112.07914733886719,
                134.07499694824219,
                135.066650390625,
                188.10209655761719
              ],
            "feature_index":1,
            "flat_feature_index":1,
            "has_nans":false,
            "nan_value_treatment":"AsIs"
          },
          {
            "borders":null,
            "feature_index":2,
            "flat_feature_index":2,
            "has_nans":false,
            "nan_value_treatment":"AsIs"
          },
          {
            "borders":
              [
                0.22360680997371674,
                0.24259218573570251,
                0.24431785941123962,
                0.24458476901054382,
                0.25075989961624146,
                0.25553804636001587,
                0.25601932406425476,
                0.2569769024848938,
                0.25708550214767456,
                0.25745540857315063,
                0.26126083731651306,
                0.26598638296127319,
                0.27429467439651489,
                0.34166666865348816,
                0.37171053886413574,
                0.38136225938796997,
                0.38830673694610596,
                0.39444446563720703,
                0.42481201887130737,
                0.44097220897674561,
                0.44949495792388916,
                0.46547618508338928,
                0.47236308455467224,
                0.47663044929504395,
                0.47898566722869873,
                0.47972601652145386,
                0.48031008243560791,
                0.48196882009506226,
                0.48629879951477051,
                0.48814210295677185,
                0.4898105263710022,
                0.50480818748474121,
                0.50625097751617432,
                0.51234757900238037,
                0.51961541175842285,
                0.58960866928100586,
                0.59362292289733887,
                0.59513974189758301,
                0.60265195369720459,
                0.60331141948699951,
                0.60501694679260254,
                0.60727512836456299,
                0.6099095344543457,
                0.61051619052886963,
                0.61092472076416016,
                0.61131095886230469,
                0.61291670799255371,
                0.61356663703918457,
                0.61391407251358032,
                0.6162029504776001
              ],
            "feature_index":3,
            "flat_feature_index":3,
            "has_nans":false,
            "nan_value_treatment":"AsIs"
          },
          {
            "borders":null,
            "feature_index":4,
            "flat_feature_index":4,
            "has_nans":false,
            "nan_value_treatment":"AsIs"
          },
          {
            "borders":
              [
                0.15337121486663818,
                0.15406593680381775,
                0.15467067062854767,
                0.1552259624004364,
                0.15549799799919128,
                0.15604886412620544,
                0.15850326418876648,
                0.15877684950828552,
                0.15903264284133911,
                0.16967649757862091,
                0.17013168334960938,
                0.17076957225799561,
                0.17112943530082703,
                0.1713840663433075,
                0.17206045985221863,
                0.1725868284702301,
                0.17292493581771851,
                0.17344352602958679,
                0.17384177446365356,
                0.17638120055198669,
                0.18142136931419373,
                0.18230694532394409,
                0.1852356493473053,
                0.18538592755794525,
                0.18715831637382507,
                0.18948730826377869,
                0.19303759932518005,
                0.19370090961456299,
                0.20585791766643524,
                0.2285921573638916,
                0.24744898080825806,
                0.26928147673606873,
                0.27386364340782166,
                0.28165066242218018,
                0.29222011566162109,
                0.30517241358757019,
                0.3273809552192688,
                0.33974361419677734,
                0.35857143998146057,
                0.37171053886413574,
                0.37980771064758301,
                0.38830673694610596,
                0.395652174949646,
                0.41421568393707275,
                0.46428573131561279,
                0.58719754219055176,
                0.60303032398223877,
                0.61916834115982056,
                0.6267857551574707,
                0.6376262903213501,
                0.6449580192565918,
                0.66228067874908447,
                0.67445653676986694,
                0.69905662536621094,
                0.73548847436904907,
                0.73822641372680664,
                0.75291204452514648,
                0.76379930973052979,
                0.76488304138183594,
                0.76557111740112305,
                0.76648223400115967,
                0.77239304780960083,
                0.7728501558303833,
                0.77746033668518066
              ],
            "feature_index":5,
            "flat_feature_index":5,
            "has_nans":false,
            "nan_value_treatment":"AsIs"
          },
          {
            "borders":
              [
                0.31761693954467773,
                0.32430949807167053,
                0.33600151538848877,
                0.34114217758178711,
                0.34289830923080444,
                0.34409701824188232,
                0.34534227848052979,
                0.34540766477584839,
                0.34761303663253784,
                0.34777092933654785,
                0.34850513935089111,
                0.34955403208732605,
                0.35083723068237305,
                0.35097745060920715,
                0.35153603553771973,
                0.35182952880859375,
                0.35199964046478271,
                0.35208630561828613,
                0.3521728515625,
                0.35239183902740479,
                0.35387781262397766,
                0.35487470030784607,
                0.35681521892547607,
                0.3570636510848999,
                0.35882478952407837,
                0.35925287008285522,
                0.36007663607597351,
                0.43614131212234497,
                0.4580419659614563,
                0.46547618508338928,
                0.47493734955787659,
                0.49193549156188965,
                0.50581395626068115,
                0.51324045658111572,
                0.5212862491607666,
                0.52187585830688477,
                0.52248430252075195,
                0.52334272861480713,
                0.53371214866638184,
                0.53614985942840576,
                0.53745746612548828,
                0.53819632530212402,
                0.53927075862884521,
                0.54076206684112549,
                0.54147553443908691,
                0.54221105575561523,
                0.5445096492767334,
                0.55086207389831543,
                0.55217784643173218,
                0.55364519357681274,
                0.55508875846862793,
                0.56036281585693359
              ],
            "feature_index":6,
            "flat_feature_index":6,
            "has_nans":false,
            "nan_value_treatment":"AsIs"
          },
          {
            "borders":
              [
                0.2928931713104248,
                0.30060243606567383,
                0.31851118803024292,
                0.33124926686286926,
                0.3435903787612915,
                0.34428304433822632,
                0.34659332036972046,
                0.34719601273536682,
                0.34729337692260742,
                0.34794619679450989,
                0.3482787013053894,
                0.34952932596206665,
                0.34984290599822998,
                0.35021644830703735,
                0.35047480463981628,
                0.35099095106124878,
                0.35121297836303711,
                0.35300567746162415,
                0.3539671003818512,
                0.35534551739692688,
                0.3555946946144104,
                0.35602748394012451,
                0.35628491640090942,
                0.35724180936813354,
                0.35789883136749268,
                0.35971015691757202,
                0.36931818723678589,
                0.395652174949646,
                0.42016807198524475,
                0.50438594818115234,
                0.51923394203186035,
                0.52440476417541504,
                0.52667140960693359,
                0.52907371520996094,
                0.53036636114120483,
                0.5392308235168457,
                0.54616475105285645,
                0.54919356107711792,
                0.89999997615814209
              ],
            "feature_index":7,
            "flat_feature_index":7,
            "has_nans":false,
            "nan_value_treatment":"AsIs"
          },
          {
            "borders":
              [
                0.19386227428913116,
                0.44386225938796997,
                0.58333337306976318,
                0.70833337306976318,
                0.875
              ],
            "feature_index":8,
            "flat_feature_index":8,
            "has_nans":false,
            "nan_value_treatment":"AsIs"
          },
          {
            "borders":
              [
                0.26120400428771973,
                0.28377193212509155,
                0.29146438837051392,
                0.30318349599838257,
                0.30369198322296143,
                0.30401003360748291,
                0.3043961226940155,
                0.30445870757102966,
                0.30455699563026428,
                0.30474469065666199,
                0.30525118112564087,
                0.3052864670753479,
                0.30602765083312988,
                0.30806884169578552,
                0.30847218632698059,
                0.30998653173446655,
                0.31285196542739868,
                0.31397333741188049,
                0.31419414281845093,
                0.31494784355163574,
                0.31603208184242249,
                0.31768640875816345,
                0.31863576173782349,
                0.31905335187911987,
                0.32158565521240234,
                0.32199257612228394,
                0.32346683740615845,
                0.32404738664627075,
                0.32444286346435547,
                0.32530078291893005,
                0.32589152455329895,
                0.3261336088180542,
                0.32860496640205383,
                0.32873541116714478,
                0.33908045291900635,
                0.35504204034805298,
                0.36375659704208374,
                0.37268519401550293,
                0.37980771064758301,
                0.38616997003555298,
                0.40833333134651184,
                0.47727274894714355,
                0.875
              ],
            "feature_index":9,
            "flat_feature_index":9,
            "has_nans":false,
            "nan_value_treatment":"AsIs"
          },
          {
            "borders":
              [
                0.30513978004455566,
                0.31077262759208679,
                0.31235861778259277,
                0.31295114755630493,
                0.31321990489959717,
                0.3137776255607605,
                0.3156617283821106,
                0.31947293877601624,
                0.32129824161529541,
                0.32498931884765625,
                0.32539764046669006,
                0.3257371187210083,
                0.32611042261123657,
                0.32639330625534058,
                0.32741788029670715,
                0.32946291565895081,
                0.33063423633575439,
                0.33071890473365784,
                0.3308175802230835,
                0.33439499139785767,
                0.33518153429031372,
                0.40778535604476929,
                0.43019479513168335,
                0.47493734955787659,
                0.5462489128112793,
                0.56929290294647217,
                0.57392227649688721,
                0.57674980163574219,
                0.57821911573410034,
                0.57957470417022705,
                0.60632151365280151,
                0.82857143878936768,
                0.92857146263122559
              ],
            "feature_index":10,
            "flat_feature_index":10,
            "has_nans":false,
            "nan_value_treatment":"AsIs"
          }
        ]
    },
  "model_info":
    {
      "catboost_version_info":"Git info:\n    Commit: e94bcd3987d868ce0832af0a6aa61dc1b123ed45\n    Branch: heads/master\n    Author: somov <somov@yandex-team.ru>\n    Summary: Fix clang-cl build: contrib/libs/lzmasdk\n    git-svn info:\n    Last Changed Rev: 7251233\n\nOther info:\n    Build by: zomb-ml-platform-msk\n    Top src dir: /Users/zomb-ml-platform-msk/go-agent-20.1.0/pipelines/BuildMaster/catboost.git\n    Top build dir: /Users/zomb-ml-platform-msk/.ya/build\n    Hostname: zomb-ml-platform-msk-macmini.zombie.yandex.net\n    Host information: \n        Darwin zomb-ml-platform-msk-macmini.zombie.yandex.net 17.6.0 Darwin Kernel Version 17.6.0: Tue May  8 15:22:16 PDT 2018; root:xnu-4570.61.1~1/RELEASE_X86_64 x86_64\n\n    ",
      "class_params":
        {
          "class_label_type":"Integer",
          "class_names":
            [
              0,
              1
            ],
          "class_to_label":
            [
              0,
              1
            ],
          "classes_count":0
        },
      "model_guid":"b6efce7b-42ae05c1-956b606c-b5b3e3ec",
      "output_options":"{\"name\":\"experiment\",\"verbose\":1,\"test_error_log\":\"test_error.tsv\",\"json_log\":\"catboost_training.json\",\"result_model_file\":\"model\",\"roc_file\":\"\",\"eval_file_name\":\"\",\"use_best_model\":true,\"allow_writing_files\":true,\"prediction_type\":[\"RawFormulaVal\"],\"fstr_internal_file\":\"\",\"output_columns\":[\"SampleId\",\"RawFormulaVal\",\"Label\"],\"snapshot_interval\":600,\"time_left_log\":\"time_left.tsv\",\"fstr_type\":\"FeatureImportance\",\"profile_log\":\"catboost_profile.log\",\"train_dir\":\"catboost_info\",\"learn_error_log\":\"learn_error.tsv\",\"training_options_file\":\"\",\"snapshot_file\":\"experiment.cbsnapshot\",\"save_snapshot\":false,\"model_format\":[\"CatboostBinary\"],\"final_feature_calcer_computation_mode\":\"Default\",\"metric_period\":1,\"output_borders\":\"\",\"final_ctr_computation_mode\":\"Default\",\"best_model_min_trees\":1,\"fstr_regular_file\":\"\"}",
      "params":
        {
          "boosting_options":
            {
              "approx_on_full_history":false,
              "boost_from_average":false,
              "boosting_type":"Plain",
              "fold_len_multiplier":2,
              "fold_permutation_block":0,
              "iterations":100,
              "learning_rate":0.078096002340316772,
              "model_shrink_mode":"Constant",
              "model_shrink_rate":0,
              "od_config":
                {
                  "stop_pvalue":0,
                  "type":"Iter",
                  "wait_iterations":100
                },
              "permutation_count":4,
              "posterior_sampling":false
            },
          "cat_feature_params":
            {
              "combinations_ctrs":
                [
                  {
                    "ctr_binarization":
                      {
                        "border_count":15,
                        "border_type":"Uniform"
                      },
                    "ctr_type":"Borders",
                    "prior_estimation":"No",
                    "priors":
                      [
                        [
                          0,
                          1
                        ],
                        [
                          0.5,
                          1
                        ],
                        [
                          1,
                          1
                        ]
                      ],
                    "target_binarization":
                      {
                        "border_count":1,
                        "border_type":"MinEntropy"
                      }
                  },
                  {
                    "ctr_binarization":
                      {
                        "border_count":15,
                        "border_type":"Uniform"
                      },
                    "ctr_type":"Counter",
                    "prior_estimation":"No",
                    "priors":
                      [
                        [
                          0,
                          1
                        ]
                      ]
                  }
                ],
              "counter_calc_method":"SkipTest",
              "ctr_leaf_count_limit":18446744073709551615,
              "max_ctr_complexity":1,
              "one_hot_max_size":2,
              "per_feature_ctrs":
                {
                },
              "simple_ctrs":
                [
                  {
                    "ctr_binarization":
                      {
                        "border_count":15,
                        "border_type":"Uniform"
                      },
                    "ctr_type":"Borders",
                    "prior_estimation":"No",
                    "priors":
                      [
                        [
                          0,
                          1
                        ],
                        [
                          0.5,
                          1
                        ],
                        [
                          1,
                          1
                        ]
                      ],
                    "target_binarization":
                      {
                        "border_count":1,
                        "border_type":"MinEntropy"
                      }
                  },
                  {
                    "ctr_binarization":
                      {
                        "border_count":15,
                        "border_type":"Uniform"
                      },
                    "ctr_type":"Counter",
                    "prior_estimation":"No",
                    "priors":
                      [
                        [
                          0,
                          1
                        ]
                      ]
                  }
                ],
              "store_all_simple_ctr":false,
              "target_binarization":
                {
                  "border_count":1,
                  "border_type":"MinEntropy"
                }
            },
          "data_processing_options":
            {
              "allow_const_label":false,
              "auto_class_weights":"None",
              "class_names":
                [
                  0,
                  1
                ],
              "class_weights":
                [
                ],
              "classes_count":0,
              "dev_default_value_fraction_for_sparse":0.82999998331069946,
              "dev_group_features":false,
              "dev_leafwise_scoring":false,
              "dev_sparse_array_indexing":"Indices",
              "float_features_binarization":
                {
                  "border_count":254,
                  "border_type":"GreedyLogSum",
                  "dev_max_subset_size_for_build_borders":200000,
                  "nan_mode":"Min"
                },
              "has_time":false,
              "ignored_features":
                [
                ],
              "per_float_feature_quantization":
                {
                },
              "target_border":null,
              "text_processing_options":
                {
                  "dictionaries":
                    [
                      {
                        "dictionary_id":"BiGram",
                        "end_of_sentence_token_policy":"Skip",
                        "end_of_word_token_policy":"Insert",
                        "gram_order":"2",
                        "max_dictionary_size":"50000",
                        "occurrence_lower_bound":"1",
                        "skip_step":"0",
                        "start_token_id":"0",
                        "token_level_type":"Word"
                      },
                      {
                        "dictionary_id":"Word",
                        "end_of_sentence_token_policy":"Skip",
                        "end_of_word_token_policy":"Insert",
                        "gram_order":"1",
                        "max_dictionary_size":"50000",
                        "occurrence_lower_bound":"1",
                        "skip_step":"0",
                        "start_token_id":"0",
                        "token_level_type":"Word"
                      }
                    ],
                  "feature_processing":
                    {
                      "default":
                        [
                          {
                            "dictionaries_names":
                              [
                                "BiGram",
                                "Word"
                              ],
                            "feature_calcers":
                              [
                                "BoW"
                              ],
                            "tokenizers_names":
                              [
                                "Space"
                              ]
                          },
                          {
                            "dictionaries_names":
                              [
                                "Word"
                              ],
                            "feature_calcers":
                              [
                                "NaiveBayes"
                              ],
                            "tokenizers_names":
                              [
                                "Space"
                              ]
                          }
                        ]
                    },
                  "tokenizers":
                    [
                      {
                        "delimiter":" ",
                        "languages":
                          [
                          ],
                        "lemmatizing":"0",
                        "lowercasing":"0",
                        "number_process_policy":"LeaveAsIs",
                        "number_token":"🔢",
                        "separator_type":"ByDelimiter",
                        "skip_empty":"1",
                        "split_by_set":"0",
                        "subtokens_policy":"SingleToken",
                        "token_types":
                          [
                            "Number",
                            "Unknown",
                            "Word"
                          ],
                        "tokenizer_id":"Space"
                      }
                    ]
                }
            },
          "detailed_profile":false,
          "flat_params":
            {
              "custom_metric":
                [
                  "Accuracy"
                ],
              "iterations":100,
              "logging_level":"Silent",
              "loss_function":"Logloss",
              "od_type":"Iter",
              "od_wait":100,
              "random_seed":5,
              "use_best_model":true
            },
          "logging_level":"Silent",
          "loss_function":
            {
              "params":
                {
                },
              "type":"Logloss"
            },
          "metadata":
            {
            },
          "metrics":
            {
              "custom_metrics":
                [
                  {
                    "params":
                      {
                      },
                    "type":"Accuracy"
                  }
                ],
              "eval_metric":
                {
                  "params":
                    {
                    },
                  "type":"Logloss"
                },
              "objective_metric":
                {
                  "params":
                    {
                    },
                  "type":"Logloss"
                }
            },
          "random_seed":5,
          "system_options":
            {
              "file_with_hosts":"hosts.txt",
              "node_port":0,
              "node_type":"SingleHost",
              "thread_count":8,
              "used_ram_limit":""
            },
          "task_type":"CPU",
          "tree_learner_options":
            {
              "bayesian_matrix_reg":0.10000000149011612,
              "bootstrap":
                {
                  "mvs_reg":null,
                  "subsample":0.80000001192092896,
                  "type":"MVS"
                },
              "depth":6,
              "dev_efb_max_buckets":1024,
              "dev_leafwise_approxes":false,
              "dev_score_calc_obj_block_size":5000000,
              "grow_policy":"SymmetricTree",
              "l2_leaf_reg":3,
              "leaf_estimation_backtracking":"AnyImprovement",
              "leaf_estimation_iterations":1,
              "leaf_estimation_method":"Newton",
              "max_leaves":64,
              "min_data_in_leaf":1,
              "model_size_reg":0.5,
              "monotone_constraints":
                {
                },
              "penalties":
                {
                  "feature_weights":
                    {
                    },
                  "first_feature_use_penalties":
                    {
                    },
                  "penalties_coefficient":1,
                  "per_object_feature_penalties":
                    {
                    }
                },
              "random_strength":1,
              "rsm":1,
              "sampling_frequency":"PerTree",
              "score_function":"Cosine",
              "sparse_features_conflict_fraction":0
            }
        },
      "train_finish_time":"2020-09-08T06:18:21Z"
    },
  "oblivious_trees":
    [
      {
        "leaf_values":
          [
            -0.070996365763924332,
            -0.046857601404190062,
            0,
            0,
            -0.041103159126482512,
            -0.022313143525804793,
            0,
            0,
            -0.10641653066153055,
            -0.019524000585079193,
            -0.085905602574348455,
            0,
            -0.066939430577414374,
            -0.069418668746948242,
            -0.035269162347239834,
            -0.012014769590817966,
            0,
            0,
            0,
            0,
            -0.022313143525804793,
            -0.012014769590817966,
            0.012014769590817966,
            0,
            -0.017354667186737061,
            0,
            0,
            0,
            -0.043386667966842651,
            0.019524000585079193,
            -0.018743040561676024,
            0,
            0,
            -0.026032000780105591,
            0,
            0,
            0,
            0.066939430577414374,
            0,
            0,
            0,
            0.017749091440981083,
            0,
            -0.022313143525804793,
            0,
            0.073985686427668521,
            0,
            0.045938824906068688,
            0,
            0,
            0,
            0,
            0,
            0.022313143525804793,
            0,
            0.022313143525804793,
            0,
            -0.022313143525804793,
            0,
            0,
            0,
            0.1133157681016361,
            0,
            0.069418668746948242
          ],
        "leaf_weights":
          [
            10,
            8,
            0,
            0,
            7,
            2,
            0,
            0,
            170,
            4,
            28,
            2,
            86,
            24,
            19,
            1,
            0,
            0,
            0,
            0,
            2,
            1,
            1,
            0,
            6,
            0,
            0,
            0,
            24,
            4,
            13,
            0,
            0,
            12,
            0,
            0,
            0,
            9,
            0,
            0,
            0,
            76,
            0,
            23,
            0,
            45,
            0,
            22,
            0,
            0,
            0,
            0,
            0,
            2,
            0,
            2,
            0,
            2,
            0,
            0,
            0,
            39,
            0,
            24
          ],
        "splits":
          [
            {
              "border":0.20585791766643524,
              "float_feature_index":5,
              "split_index":172,
              "split_type":"FloatFeature"
            },
            {
              "border":0.52187585830688477,
              "float_feature_index":6,
              "split_index":243,
              "split_type":"FloatFeature"
            },
            {
              "border":0.26598638296127319,
              "float_feature_index":3,
              "split_index":105,
              "split_type":"FloatFeature"
            },
            {
              "border":0.28377193212509155,
              "float_feature_index":9,
              "split_index":305,
              "split_type":"FloatFeature"
            },
            {
              "border":50.247901916503906,
              "float_feature_index":1,
              "split_index":78,
              "split_type":"FloatFeature"
            },
            {
              "border":0.38830673694610596,
              "float_feature_index":5,
              "split_index":185,
              "split_type":"FloatFeature"
            }
          ]
      },
      {
        "leaf_values":
          [
            -0.068879578132353347,
            0.03403707640512716,
            -0.057223121337420101,
            0.036331250897293596,
            -0.011613788788555004,
            0.011908218907331293,
            0.012656203078163168,
            0.012148923979595225,
            -0.011880845257073249,
            0.021562372607603797,
            0,
            0.021542684666188382,
            0,
            0,
            0,
            0,
            -0.080775612652313658,
            0.036759852925781773,
            -0.092035152201549925,
            0.031390751761994191,
            0.00057004722720296083,
            0,
            0.012127444877330019,
            0.011337559268791157,
            -0.0097361576118217569,
            0.011880845257073249,
            -0.0087109912952457944,
            0.077405176347764046,
            0,
            0,
            0.012127444877330019,
            0.043575968793712942,
            -0.041940482015484955,
            -0.010947789763828798,
            -0.076807226729261241,
            0.010794733349050057,
            0.011658886400671723,
            0.022027429298154384,
            0.011394260334001547,
            0.038957075979484064,
            0.011942626267457021,
            0,
            -0.011754595443072099,
            0.011598986363699609,
            0,
            0,
            0,
            -0.0007742966501822848,
            -0.073830057544431352,
            -0.0061097503021554861,
            -0.078120013049644998,
            0.047417663690072713,
            -0.045214587210654543,
            0.038023201914045325,
            -0.033206359519564486,
            0.044553972840452198,
            -0.011880845257073249,
            0.030423733385053078,
            -0.013683628344266785,
            0.077274354844699716,
            0,
            0,
            -0.039962413601984652,
            0.054526220363229114
          ],
        "leaf_weights":
          [
            18,
            11,
            21,
            9,
            1,
            1,
            1,
            1,
            1,
            2,
            0,
            2,
            0,
            0,
            0,
            0,
            68,
            28,
            78,
            34,
            2,
            0,
            1,
            1,
            3,
            1,
            5,
            13,
            0,
            0,
            1,
            5,
            19,
            18,
            51,
            25,
            3,
            2,
            3,
            4,
            1,
            0,
            1,
            1,
            0,
            0,
            0,
            2,
            28,
            19,
            90,
            32,
            5,
            4,
            6,
            5,
            1,
            3,
            10,
            13,
            0,
            0,
            7,
            7
          ],
        "splits":
          [
            {
              "border":0.60303032398223877,
              "float_feature_index":5,
              "split_index":190,
              "split_type":"FloatFeature"
            },
            {
              "border":0.30806884169578552,
              "float_feature_index":9,
              "split_index":317,
              "split_type":"FloatFeature"
            },
            {
              "border":0.875,
              "float_feature_index":8,
              "split_index":303,
              "split_type":"FloatFeature"
            },
            {
              "border":71.141647338867188,
              "float_feature_index":1,
              "split_index":85,
              "split_type":"FloatFeature"
            },
            {
              "border":14.75,
              "float_feature_index":0,
              "split_index":12,
              "split_type":"FloatFeature"
            },
            {
              "border":0.35099095106124878,
              "float_feature_index":7,
              "split_index":275,
              "split_type":"FloatFeature"
            }
          ]
      },
      {
        "leaf_values":
          [
            -0.056920011614843447,
            0,
            0,
            0,
            -0.02927480604703258,
            0.026620685474516761,
            0,
            0,
            -0.089722323187108627,
            0,
            0.00096086260407016687,
            0,
            -0.055780104135816487,
            0.052259437747029854,
            -0.030024820225176923,
            0.038540300666179472,
            -0.013830098455658147,
            0,
            0,
            0,
            -0.011483414599525042,
            -0.024708328217049113,
            0,
            -0.012428106203079103,
            0.0061520648733019512,
            0,
            0.012158321765510335,
            0,
            -0.016266999363259711,
            0.0019574869599205489,
            0.032207888310068288,
            0.044785847574511678,
            -0.086608473473684167,
            0,
            0,
            0,
            -0.071181220331799536,
            0.056960793602781237,
            0,
            0.011079412304672158,
            -0.061121340430307619,
            0,
            0.009060340193861708,
            0,
            -0.074382911841134741,
            0.04501242400831456,
            -0.029676388159145216,
            0.062060677765558576,
            -0.031275200311241008,
            0,
            -0.01160461702535062,
            0,
            -0.02967656387679599,
            0.056894188232552149,
            0,
            0.029466056496969172,
            -0.069958704833015126,
            0,
            -0.0090663193154556006,
            0,
            -0.048613235906145157,
            0.010867838993190451,
            -0.050081767456986483,
            0.066951545643220534
          ],
        "leaf_weights":
          [
            15,
            0,
            0,
            0,
            3,
            5,
            0,
            0,
            48,
            0,
            2,
            0,
            11,
            28,
            3,
            4,
            6,
            0,
            0,
            0,
            1,
            7,
            0,
            1,
            14,
            0,
            1,
            0,
            11,
            29,
            3,
            5,
            67,
            0,
            0,
            0,
            20,
            31,
            0,
            1,
            88,
            0,
            11,
            0,
            62,
            74,
            3,
            9,
            6,
            0,
            1,
            0,
            3,
            14,
            0,
            3,
            11,
            0,
            3,
            0,
            18,
            30,
            6,
            10
          ],
        "splits":
          [
            {
              "border":0.41421568393707275,
              "float_feature_index":5,
              "split_index":187,
              "split_type":"FloatFeature"
            },
            {
              "border":0.58333337306976318,
              "float_feature_index":8,
              "split_index":301,
              "split_type":"FloatFeature"
            },
            {
              "border":0.18538592755794525,
              "float_feature_index":5,
              "split_index":167,
              "split_type":"FloatFeature"
            },
            {
              "border":0.31947293877601624,
              "float_feature_index":10,
              "split_index":354,
              "split_type":"FloatFeature"
            },
            {
              "border":0.35971015691757202,
              "float_feature_index":7,
              "split_index":285,
              "split_type":"FloatFeature"
            },
            {
              "border":14.25,
              "float_feature_index":0,
              "split_index":11,
              "split_type":"FloatFeature"
            }
          ]
      },
      {
        "leaf_values":
          [
            -0.10401886641429367,
            0.023509337143258424,
            -0.06936491071934657,
            0.0068850657637758847,
            -0.029711883416259181,
            0.03637947257788423,
            -0.057398136410164745,
            0.10151990608920337,
            -0.0557768621206449,
            -0.022695597684400697,
            -0.04074545117962846,
            0.0055329162479689402,
            0.012153494174056928,
            0.043544893706623441,
            -0.042892494611743173,
            0.074995981803718109,
            0,
            0,
            -0.05057112307036548,
            0.011380438613420715,
            0,
            0,
            -0.046386922477499974,
            0.012584257373653094,
            0,
            0,
            -0.010558516539233965,
            0,
            0,
            0,
            -0.036066707893641137,
            0.028295048696061063,
            -0.048667388940215967,
            0.041066243431876474,
            -0.088062322719281647,
            -0.040175461177594102,
            -0.028288383543127297,
            0.036382524489344113,
            -0.033256541892581995,
            0.065660979836643055,
            -0.0014899983484460172,
            -0.011014178703075689,
            -0.070857439371096523,
            -0.060646601922649861,
            0.059360001059614191,
            0.027318807744675162,
            -0.05153840993619889,
            0.061997846227696336,
            0,
            0,
            0,
            0,
            0,
            0,
            -0.0031524374567013084,
            0.035359859601258717,
            0,
            0,
            -0.010848148749841104,
            0,
            0,
            0,
            -0.017812423480363455,
            -0.0093232747337364547
          ],
        "leaf_weights":
          [
            45,
            22,
            99,
            27,
            20,
            4,
            57,
            37,
            11,
            16,
            5,
            9,
            1,
            5,
            8,
            13,
            0,
            0,
            7,
            1,
            0,
            0,
            16,
            6,
            0,
            0,
            1,
            0,
            0,
            0,
            4,
            3,
            13,
            10,
            27,
            17,
            3,
            4,
            29,
            22,
            11,
            14,
            12,
            11,
            7,
            15,
            10,
            23,
            0,
            0,
            0,
            0,
            0,
            0,
            7,
            4,
            0,
            0,
            1,
            0,
            0,
            0,
            4,
            7
          ],
        "splits":
          [
            {
              "border":0.3273809552192688,
              "float_feature_index":5,
              "split_index":180,
              "split_type":"FloatFeature"
            },
            {
              "border":15.5,
              "float_feature_index":0,
              "split_index":13,
              "split_type":"FloatFeature"
            },
            {
              "border":0.37171053886413574,
              "float_feature_index":3,
              "split_index":108,
              "split_type":"FloatFeature"
            },
            {
              "border":0.35789883136749268,
              "float_feature_index":7,
              "split_index":284,
              "split_type":"FloatFeature"
            },
            {
              "border":48.5,
              "float_feature_index":0,
              "split_index":37,
              "split_type":"FloatFeature"
            },
            {
              "border":0.36007663607597351,
              "float_feature_index":6,
              "split_index":234,
              "split_type":"FloatFeature"
            }
          ]
      },
      {
        "leaf_values":
          [
            -0.08183796878500664,
            0.029234161089995679,
            -0.076920710675066561,
            0.0022445061175975735,
            -0.063573706255817181,
            -0.006655387557379714,
            -0.076718982221104751,
            0.036296387592569528,
            0,
            -0.0018088026256992968,
            0,
            -0.036064235704091195,
            0,
            -0.02284654380040009,
            0,
            0.012102379162427483,
            0,
            0,
            0,
            0,
            -0.027104208917889335,
            0.037525609057245918,
            -0.053130374717532763,
            0.096576917163695236,
            0,
            0,
            0,
            0,
            0,
            -0.0018206620043628788,
            0,
            0.091754116847207898,
            -0.010540702165817378,
            0,
            0,
            -0.0081272751126417967,
            0,
            0,
            -0.010823030683037662,
            -0.011524167104049807,
            0,
            0,
            0,
            -0.010055860894696537,
            0,
            0,
            0,
            -0.0014054734361767635,
            0,
            0,
            0,
            0,
            0,
            0,
            -0.019998295449750222,
            -0.053813687818077105,
            0,
            0,
            0,
            0,
            0,
            0.029667403095931771,
            0,
            0.020365161759333575
          ],
        "leaf_weights":
          [
            48,
            26,
            141,
            48,
            15,
            7,
            37,
            26,
            0,
            6,
            0,
            21,
            0,
            2,
            0,
            8,
            0,
            0,
            0,
            0,
            25,
            7,
            126,
            69,
            0,
            0,
            0,
            0,
            0,
            2,
            0,
            30,
            1,
            0,
            0,
            3,
            0,
            0,
            1,
            1,
            0,
            0,
            0,
            3,
            0,
            0,
            0,
            2,
            0,
            0,
            0,
            0,
            0,
            0,
            2,
            6,
            0,
            0,
            0,
            0,
            0,
            3,
            0,
            2
          ],
        "splits":
          [
            {
              "border":0.30517241358757019,
              "float_feature_index":5,
              "split_index":179,
              "split_type":"FloatFeature"
            },
            {
              "border":0.875,
              "float_feature_index":0,
              "split_index":3,
              "split_type":"FloatFeature"
            },
            {
              "border":0.25601932406425476,
              "float_feature_index":3,
              "split_index":100,
              "split_type":"FloatFeature"
            },
            {
              "border":0.76557111740112305,
              "float_feature_index":5,
              "split_index":203,
              "split_type":"FloatFeature"
            },
            {
              "border":0.48196882009506226,
              "float_feature_index":3,
              "split_index":121,
              "split_type":"FloatFeature"
            },
            {
              "border":0.55508875846862793,
              "float_feature_index":6,
              "split_index":258,
              "split_type":"FloatFeature"
            }
          ]
      },
      {
        "leaf_values":
          [
            -0.08377290901133233,
            0.039134572980312789,
            0.0045205988237882857,
            0.013416977719940101,
            -0.0060305760073076798,
            0.0017558424055615957,
            -0.039315085767706905,
            0.010695585939310352,
            0,
            0,
            0,
            0,
            0,
            0,
            0,
            0,
            0,
            0,
            0,
            0,
            -0.035895212252779918,
            -0.016658033446519647,
            -0.015136922109017702,
            0.034338158366724499,
            0,
            0,
            0,
            0,
            0,
            0,
            0,
            0,
            -0.071496064803824949,
            0.021555326976728604,
            -0.041158838928615528,
            0.054013470006190008,
            -0.08604240920579713,
            -0.031464873878130128,
            -0.051944652638073664,
            0.063347241719915792,
            -0.020047808976768292,
            0.011239508026203111,
            0.016738619863101097,
            0.032035398334821275,
            0.025176122716065841,
            -0.0013694553108195952,
            -0.025571720162017142,
            0.072610390678228068,
            0,
            0,
            0,
            0,
            -0.075745649117054045,
            0.042002702969893876,
            -0.06707366443428861,
            0.05364616391362205,
            0,
            0,
            0,
            0,
            0.0081542345017852087,
            0.0064636069100315555,
            -0.03405855869996751,
            0.079723822163760324
          ],
        "leaf_weights":
          [
            34,
            19,
            4,
            4,
            16,
            13,
            8,
            1,
            0,
            0,
            0,
            0,
            0,
            0,
            0,
            0,
            0,
            0,
            0,
            0,
            18,
            12,
            4,
            4,
            0,
            0,
            0,
            0,
            0,
            0,
            0,
            0,
            26,
            7,
            12,
            8,
            108,
            44,
            37,
            15,
            2,
            1,
            11,
            7,
            4,
            4,
            31,
            20,
            0,
            0,
            0,
            0,
            44,
            34,
            16,
            8,
            0,
            0,
            0,
            0,
            14,
            5,
            33,
            40
          ],
        "splits":
          [
            {
              "border":0.58719754219055176,
              "float_feature_index":5,
              "split_index":189,
              "split_type":"FloatFeature"
            },
            {
              "border":0.48629879951477051,
              "float_feature_index":3,
              "split_index":122,
              "split_type":"FloatFeature"
            },
            {
              "border":0.3137776255607605,
              "float_feature_index":10,
              "split_index":352,
              "split_type":"FloatFeature"
            },
            {
              "border":0.37268519401550293,
              "float_feature_index":9,
              "split_index":341,
              "split_type":"FloatFeature"
            },
            {
              "border":0.33439499139785767,
              "float_feature_index":10,
              "split_index":366,
              "split_type":"FloatFeature"
            },
            {
              "border":0.30369198322296143,
              "float_feature_index":9,
              "split_index":308,
              "split_type":"FloatFeature"
            }
          ]
      },
      {
        "leaf_values":
          [
            0.0039354478235242097,
            0,
            0,
            0,
            -0.031071638352895132,
            0.0095717126015266944,
            0,
            0.009039621718795951,
            0,
            0,
            0,
            0,
            0,
            0,
            0,
            0,
            -0.085063261717788344,
            0.029334141653117572,
            -0.029786194980432414,
            -0.0083451521152801637,
            -0.063890965210230258,
            0.053538729401938275,
            0.0061559379639049699,
            0.081812489534089941,
            0,
            0,
            0,
            0,
            0,
            0,
            0,
            0,
            0,
            0,
            -0.010259470635016844,
            0,
            -0.0097054557028953114,
            -0.014437136056755673,
            -0.010458908906307242,
            0,
            0,
            0,
            0,
            -0.012066935444803703,
            -0.064344240134006706,
            -0.072841719423277676,
            0,
            0,
            -0.03777498852333,
            -0.02273188561650585,
            -0.017801789188301258,
            0,
            -0.058807233892561504,
            0.026553688575801829,
            0.0165863356762606,
            0.032279071372044894,
            -0.049611327865591061,
            0.022975247199322538,
            -0.017723268986376484,
            -0.047300107226772234,
            -0.049256825537995229,
            0.067560017403764092,
            -0.024696841026695952,
            0.040344656929059579
          ],
        "leaf_weights":
          [
            2,
            0,
            0,
            0,
            4,
            10,
            0,
            1,
            0,
            0,
            0,
            0,
            0,
            0,
            0,
            0,
            135,
            51,
            7,
            7,
            63,
            37,
            40,
            35,
            0,
            0,
            0,
            0,
            0,
            0,
            0,
            0,
            0,
            0,
            1,
            0,
            1,
            3,
            1,
            0,
            0,
            0,
            0,
            1,
            21,
            18,
            0,
            0,
            28,
            2,
            2,
            0,
            10,
            3,
            9,
            4,
            16,
            7,
            2,
            12,
            29,
            39,
            22,
            45
          ],
        "splits":
          [
            {
              "border":0.29222011566162109,
              "float_feature_index":5,
              "split_index":178,
              "split_type":"FloatFeature"
            },
            {
              "border":0.32873541116714478,
              "float_feature_index":9,
              "split_index":337,
              "split_type":"FloatFeature"
            },
            {
              "border":12.3125,
              "float_feature_index":1,
              "split_index":57,
              "split_type":"FloatFeature"
            },
            {
              "border":0.35628491640090942,
              "float_feature_index":7,
              "split_index":282,
              "split_type":"FloatFeature"
            },
            {
              "border":0.19386227428913116,
              "float_feature_index":8,
              "split_index":299,
              "split_type":"FloatFeature"
            },
            {
              "border":0.3539671003818512,
              "float_feature_index":7,
              "split_index":278,
              "split_type":"FloatFeature"
            }
          ]
      },
      {
        "leaf_values":
          [
            0.014409585646587517,
            -0.012446453715325828,
            -0.068893626476810757,
            0.02854642517753225,
            -0.0089324853974516918,
            0.0080734739359634346,
            -0.023591431718709147,
            0.022013626000012915,
            -0.025298761650353708,
            -0.038887947622678151,
            -0.06341723455580503,
            0.024185275323508032,
            -0.047835145543340313,
            -0.041369339288724209,
            -0.013270979862887278,
            0.065616968904825476,
            0,
            0,
            -0.078338199084203114,
            0.016857349390162587,
            -0.0089154688048292199,
            -0.010615896857123471,
            -0.017609944740460085,
            0.033086209574523004,
            -0.017322876241185243,
            -0.011659931091662308,
            -0.059793118994667958,
            -0.012397979516576349,
            -0.024333002813073139,
            -0.031131617244855945,
            -0.048434740969293795,
            0.033338762485934641,
            0,
            0,
            0,
            0,
            -0.010411081764031995,
            0.019613590809787373,
            -0.01891241560657517,
            0.067534792064605262,
            0,
            0,
            0,
            0,
            -0.026075928655650556,
            -0.011400959242410528,
            0.00025464553722046978,
            0.047777900390578693,
            0,
            0,
            0,
            0,
            0,
            0.0089900456576908708,
            0.015045129440316872,
            0.051979357375798424,
            0,
            0,
            0,
            0,
            -0.010398208137236098,
            0.011060858711250411,
            -0.038573386314042571,
            0.076539418187687849
          ],
        "leaf_weights":
          [
            1,
            1,
            95,
            44,
            1,
            3,
            15,
            11,
            3,
            4,
            90,
            33,
            15,
            10,
            40,
            32,
            0,
            0,
            35,
            10,
            1,
            3,
            21,
            4,
            2,
            1,
            25,
            1,
            3,
            3,
            26,
            14,
            0,
            0,
            0,
            0,
            1,
            2,
            9,
            15,
            0,
            0,
            0,
            0,
            3,
            3,
            18,
            15,
            0,
            0,
            0,
            0,
            0,
            1,
            7,
            9,
            0,
            0,
            0,
            0,
            1,
            1,
            17,
            19
          ],
        "splits":
          [
            {
              "border":0.6267857551574707,
              "float_feature_index":5,
              "split_index":192,
              "split_type":"FloatFeature"
            },
            {
              "border":0.19386227428913116,
              "float_feature_index":8,
              "split_index":299,
              "split_type":"FloatFeature"
            },
            {
              "border":15.745849609375,
              "float_feature_index":1,
              "split_index":65,
              "split_type":"FloatFeature"
            },
            {
              "border":0.35047480463981628,
              "float_feature_index":7,
              "split_index":274,
              "split_type":"FloatFeature"
            },
            {
              "border":32.25,
              "float_feature_index":0,
              "split_index":26,
              "split_type":"FloatFeature"
            },
            {
              "border":49.752098083496094,
              "float_feature_index":1,
              "split_index":77,
              "split_type":"FloatFeature"
            }
          ]
      },
      {
        "leaf_values":
          [
            -0.091707556277387095,
            0.038764125565945648,
            -0.058382195586545942,
            0.028432241993118362,
            0,
            0,
            -0.016473887641339936,
            0.0381991266823885,
            0,
            0.020754067424736278,
            0,
            -0.00022591614064321747,
            0,
            0,
            0,
            0.023205192564097622,
            -0.0085301105262981271,
            0.009136151546983268,
            -0.016879296737489637,
            0,
            0,
            0,
            0,
            -0.01291903088979782,
            0,
            0,
            0,
            -0.012894631739615159,
            0,
            0,
            0,
            0,
            -0.054840812227961513,
            0.02716702056144293,
            -0.070521327079434676,
            0.032416799257242244,
            0,
            0,
            -0.015673769315157942,
            0.064019078863075521,
            0,
            0.016717067969351632,
            0,
            -0.0067086991789382698,
            0,
            0,
            0,
            0.053035476103019528,
            -0.02942980695503121,
            -0.0047831364986364458,
            -0.036322549920285649,
            -0.012028824465360828,
            0,
            0,
            0.0064291499289672056,
            -0.032865819180746235,
            0,
            -0.029986808232225274,
            0,
            0.028487187780104308,
            0,
            0,
            0,
            0.036463274339898481
          ],
        "leaf_weights":
          [
            61,
            30,
            33,
            6,
            0,
            0,
            24,
            12,
            0,
            2,
            0,
            7,
            0,
            0,
            0,
            6,
            6,
            1,
            2,
            0,
            0,
            0,
            0,
            1,
            0,
            0,
            0,
            1,
            0,
            0,
            0,
            0,
            145,
            63,
            49,
            7,
            0,
            0,
            71,
            23,
            0,
            26,
            0,
            12,
            0,
            0,
            0,
            27,
            10,
            4,
            5,
            1,
            0,
            0,
            6,
            10,
            0,
            3,
            0,
            3,
            0,
            0,
            0,
            11
          ],
        "splits":
          [
            {
              "border":0.38830673694610596,
              "float_feature_index":5,
              "split_index":185,
              "split_type":"FloatFeature"
            },
            {
              "border":0.31419414281845093,
              "float_feature_index":9,
              "split_index":322,
              "split_type":"FloatFeature"
            },
            {
              "border":0.32860496640205383,
              "float_feature_index":9,
              "split_index":336,
              "split_type":"FloatFeature"
            },
            {
              "border":0.76379930973052979,
              "float_feature_index":5,
              "split_index":201,
              "split_type":"FloatFeature"
            },
            {
              "border":0.54076206684112549,
              "float_feature_index":6,
              "split_index":251,
              "split_type":"FloatFeature"
            },
            {
              "border":0.32129824161529541,
              "float_feature_index":10,
              "split_index":355,
              "split_type":"FloatFeature"
            }
          ]
      },
      {
        "leaf_values":
          [
            -0.028965397679173967,
            0,
            -0.0088780401655481154,
            0,
            0,
            0.047488078127203508,
            0,
            0,
            -0.073175729394287209,
            -0.029874074156746602,
            -0.045823264509419724,
            0,
            0,
            -0.0037100546620205499,
            0,
            -0.010294730797551957,
            0,
            0,
            0,
            0,
            0,
            0,
            0,
            0,
            0,
            0,
            0,
            0,
            0,
            0,
            0,
            0,
            -0.071849153385513009,
            0,
            -0.02665275147429105,
            0,
            0,
            -0.024558624155328262,
            0,
            0.03810060825333815,
            -0.058527406453562553,
            -0.011584356474318033,
            -0.03289458206494169,
            -0.025855005156606905,
            0,
            -0.030904934936337572,
            0,
            0.071738624571404883,
            -0.0096479768131763188,
            0,
            -0.010271460565070297,
            0,
            0,
            0.03456598854500819,
            0,
            0.016423318354897725,
            0.0015531730324264855,
            0,
            -0.0049808625486990913,
            0,
            0,
            0.041996780632103214,
            0,
            0.078255353911626177
          ],
        "leaf_weights":
          [
            24,
            0,
            1,
            0,
            0,
            13,
            0,
            0,
            131,
            7,
            7,
            0,
            0,
            41,
            0,
            1,
            0,
            0,
            0,
            0,
            0,
            0,
            0,
            0,
            0,
            0,
            0,
            0,
            0,
            0,
            0,
            0,
            19,
            0,
            16,
            0,
            0,
            18,
            0,
            13,
            45,
            4,
            110,
            3,
            0,
            57,
            0,
            84,
            1,
            0,
            1,
            0,
            0,
            4,
            0,
            2,
            10,
            0,
            22,
            0,
            0,
            5,
            0,
            29
          ],
        "splits":
          [
            {
              "border":0.27386364340782166,
              "float_feature_index":5,
              "split_index":176,
              "split_type":"FloatFeature"
            },
            {
              "border":0.46547618508338928,
              "float_feature_index":3,
              "split_index":115,
              "split_type":"FloatFeature"
            },
            {
              "border":0.33974361419677734,
              "float_feature_index":5,
              "split_index":181,
              "split_type":"FloatFeature"
            },
            {
              "border":0.34409701824188232,
              "float_feature_index":6,
              "split_index":213,
              "split_type":"FloatFeature"
            },
            {
              "border":0.44386225938796997,
              "float_feature_index":8,
              "split_index":300,
              "split_type":"FloatFeature"
            },
            {
              "border":9.1125001907348633,
              "float_feature_index":1,
              "split_index":53,
              "split_type":"FloatFeature"
            }
          ]
      },
      {
        "leaf_values":
          [
            -0.037497100625997676,
            0,
            0,
            0,
            -0.06764680382335618,
            0,
            0.013792525563945531,
            0,
            -0.0094754420935695086,
            0,
            0,
            0,
            -0.016071539711950019,
            0,
            0,
            0,
            -0.0098770015843304571,
            -0.064079262148744695,
            0,
            0,
            -0.043394865973932467,
            0.056758354629702426,
            0,
            0,
            0,
            0.0097704155926976472,
            0,
            0.0082136687415265419,
            -0.030457983096955066,
            0.02812375645922776,
            -0.020667647368469818,
            0.057761516783494685,
            -0.0010680574403518343,
            0,
            0,
            0,
            -0.05755987457792705,
            0,
            0,
            0,
            -0.024997659218141014,
            0,
            0,
            0,
            -0.030031010465214426,
            0,
            0.014602038463183855,
            0,
            -0.048693516776734037,
            -0.063523918678371705,
            0,
            0,
            -0.049828114726027377,
            0.0040416048634037589,
            0,
            0,
            -0.0087003581527923916,
            0.025358355539610824,
            0,
            0.026323617385655786,
            -0.032555473544327689,
            0.058531937578948534,
            -0.030302105206153999,
            0.069571947790553423
          ],
        "leaf_weights":
          [
            6,
            0,
            0,
            0,
            35,
            0,
            1,
            0,
            1,
            0,
            0,
            0,
            23,
            0,
            0,
            0,
            4,
            9,
            0,
            0,
            55,
            58,
            0,
            0,
            0,
            1,
            0,
            1,
            18,
            15,
            5,
            13,
            3,
            0,
            0,
            0,
            67,
            0,
            0,
            0,
            6,
            0,
            0,
            0,
            47,
            0,
            5,
            0,
            9,
            16,
            0,
            0,
            85,
            64,
            0,
            0,
            1,
            3,
            0,
            3,
            34,
            46,
            9,
            25
          ],
        "splits":
          [
            {
              "border":0.395652174949646,
              "float_feature_index":5,
              "split_index":186,
              "split_type":"FloatFeature"
            },
            {
              "border":79.425003051757813,
              "float_feature_index":1,
              "split_index":89,
              "split_type":"FloatFeature"
            },
            {
              "border":0.19386227428913116,
              "float_feature_index":8,
              "split_index":299,
              "split_type":"FloatFeature"
            },
            {
              "border":0.48814210295677185,
              "float_feature_index":3,
              "split_index":123,
              "split_type":"FloatFeature"
            },
            {
              "border":0.17292493581771851,
              "float_feature_index":5,
              "split_index":160,
              "split_type":"FloatFeature"
            },
            {
              "border":0.35083723068237305,
              "float_feature_index":6,
              "split_index":220,
              "split_type":"FloatFeature"
            }
          ]
      },
      {
        "leaf_values":
          [
            -0.067835512928445585,
            0,
            -0.02873132516331748,
            0,
            0,
            0,
            0,
            0,
            0.028667813762462364,
            0,
            -0.020066985493804586,
            0,
            0,
            0,
            0,
            0,
            -0.039974780315344391,
            0,
            -0.030279454059783974,
            0,
            0,
            0,
            0,
            0,
            -0.01674196733366845,
            0,
            0.038474719163326281,
            0,
            0,
            0,
            0,
            0,
            -0.048692821059575689,
            0,
            -0.031459865428242126,
            0,
            -0.046680756030384685,
            -0.00083296801255857051,
            -0.043632184784545877,
            0.072751890158952379,
            0.0048569598356023279,
            0,
            -0.014159891871928208,
            0,
            0,
            0.039207468444002171,
            -0.010206430683338414,
            0.068444165751967795,
            -0.0167383711473044,
            0,
            0.02652936983578626,
            0,
            -0.012798938977423166,
            -0.036319611862804316,
            -0.058014628715753955,
            0.065324339772576706,
            0.0050124912797444776,
            0,
            -0.031356992992982384,
            0,
            -0.01631798238796205,
            0.039917091937332679,
            0,
            0.041083866051884292
          ],
        "leaf_weights":
          [
            131,
            0,
            80,
            0,
            0,
            0,
            0,
            0,
            4,
            0,
            5,
            0,
            0,
            0,
            0,
            0,
            21,
            0,
            20,
            0,
            0,
            0,
            0,
            0,
            2,
            0,
            8,
            0,
            0,
            0,
            0,
            0,
            43,
            0,
            15,
            0,
            31,
            94,
            18,
            49,
            2,
            0,
            4,
            0,
            0,
            5,
            1,
            19,
            6,
            0,
            2,
            0,
            12,
            27,
            7,
            38,
            2,
            0,
            4,
            0,
            2,
            5,
            0,
            11
          ],
        "splits":
          [
            {
              "border":0.46428573131561279,
              "float_feature_index":5,
              "split_index":188,
              "split_type":"FloatFeature"
            },
            {
              "border":0.47663044929504395,
              "float_feature_index":3,
              "split_index":117,
              "split_type":"FloatFeature"
            },
            {
              "border":0.19370090961456299,
              "float_feature_index":5,
              "split_index":171,
              "split_type":"FloatFeature"
            },
            {
              "border":0.44386225938796997,
              "float_feature_index":8,
              "split_index":300,
              "split_type":"FloatFeature"
            },
            {
              "border":0.46547618508338928,
              "float_feature_index":6,
              "split_index":237,
              "split_type":"FloatFeature"
            },
            {
              "border":0.1852356493473053,
              "float_feature_index":5,
              "split_index":166,
              "split_type":"FloatFeature"
            }
          ]
      },
      {
        "leaf_values":
          [
            -0.020606824612646218,
            0,
            0,
            0,
            -0.013002983382243934,
            0,
            0,
            0,
            -0.0081323319243950878,
            0,
            0.011946069158585244,
            0,
            -0.0080700436032535329,
            0,
            -0.008713313294467645,
            0,
            -0.072268799455137353,
            -0.0042809380311319596,
            -0.016454795080907868,
            -0.0097992227075418704,
            -0.039274357591658683,
            0.017432968680139341,
            0,
            0,
            -0.0071064262802714535,
            0.00039180339048688781,
            0.0043633588085262446,
            -0.013983321406212794,
            0.0079238587282964325,
            0.043115653626255121,
            -0.016506008468680763,
            0.025914856132621147,
            -0.0070323444559225673,
            0,
            0,
            0,
            0.017254042047831836,
            0,
            0,
            0,
            -0.025081497795290737,
            0,
            0.029855511855979483,
            0,
            -0.017106919754548658,
            0,
            -0.0092726004863838054,
            0,
            -0.052494129222169943,
            0.009218571567917706,
            -0.0082709228908376311,
            0,
            -0.037571629541835433,
            0.01473429640773951,
            0,
            0,
            -0.063544860971979561,
            0.026403166347615827,
            -0.032070902751722898,
            0.042718010129823868,
            -0.022122474565168693,
            0.028692462116704436,
            9.7006867867880777e-05,
            0.017028180967208779
          ],
        "leaf_weights":
          [
            3,
            0,
            0,
            0,
            2,
            0,
            0,
            0,
            4,
            0,
            1,
            0,
            1,
            0,
            1,
            0,
            26,
            18,
            2,
            1,
            13,
            7,
            0,
            0,
            33,
            32,
            7,
            1,
            13,
            24,
            2,
            7,
            12,
            0,
            0,
            0,
            1,
            0,
            0,
            0,
            11,
            0,
            4,
            0,
            2,
            0,
            1,
            0,
            81,
            23,
            1,
            0,
            12,
            8,
            0,
            0,
            102,
            88,
            24,
            17,
            16,
            31,
            15,
            21
          ],
        "splits":
          [
            {
              "border":0.28165066242218018,
              "float_feature_index":5,
              "split_index":177,
              "split_type":"FloatFeature"
            },
            {
              "border":0.59513974189758301,
              "float_feature_index":3,
              "split_index":131,
              "split_type":"FloatFeature"
            },
            {
              "border":0.43019479513168335,
              "float_feature_index":10,
              "split_index":369,
              "split_type":"FloatFeature"
            },
            {
              "border":8.4874992370605469,
              "float_feature_index":1,
              "split_index":51,
              "split_type":"FloatFeature"
            },
            {
              "border":0.15903264284133911,
              "float_feature_index":5,
              "split_index":152,
              "split_type":"FloatFeature"
            },
            {
              "border":14.75,
              "float_feature_index":0,
              "split_index":12,
              "split_type":"FloatFeature"
            }
          ]
      },
      {
        "leaf_values":
          [
            -0.045465243534088533,
            0.048490021734505999,
            0,
            0,
            -0.0099562663028231538,
            0.029260402781183664,
            -0.020460923785281811,
            0.0083258589961941118,
            -0.0086191567391157263,
            0,
            0,
            0,
            0,
            0,
            -0.0087963785045016372,
            0,
            -0.058294360884043869,
            0.034378032647325737,
            0,
            0,
            -0.0020693734886362359,
            0.021702318230125653,
            -0.040400709529249325,
            0.021383658273542914,
            -0.032572214021702066,
            0.021797619997202866,
            0,
            0,
            -0.011585066468803803,
            0.0074976009589602785,
            -0.008630998523628924,
            -0.014104383828225113,
            -0.033396854634906131,
            0.0077478143265231666,
            0,
            0,
            -0.0076081537166586485,
            0.014756969030491321,
            -0.0047900997040266763,
            0.023407538283086411,
            0.014695796576009416,
            -0.0056711799999449915,
            0,
            0,
            0,
            0,
            0,
            0,
            0.0036055221746741353,
            0.016072625483927957,
            0,
            0,
            -0.022439695894490026,
            0.019164230336700575,
            -0.048177043533075815,
            0.030930770525447349,
            -0.01877455957365011,
            -0.0012317053955846746,
            0,
            0,
            -0.0083984571752277991,
            0.0086292515746341312,
            -0.033451976520636723,
            -0.014417194365199846
          ],
        "leaf_weights":
          [
            33,
            15,
            0,
            0,
            5,
            4,
            14,
            6,
            1,
            0,
            0,
            0,
            0,
            0,
            1,
            0,
            178,
            85,
            0,
            0,
            37,
            13,
            67,
            24,
            4,
            5,
            0,
            0,
            4,
            1,
            1,
            3,
            5,
            8,
            0,
            0,
            1,
            2,
            3,
            3,
            3,
            2,
            0,
            0,
            0,
            0,
            0,
            0,
            38,
            44,
            0,
            0,
            3,
            5,
            12,
            15,
            5,
            9,
            0,
            0,
            1,
            1,
            4,
            3
          ],
        "splits":
          [
            {
              "border":0.46428573131561279,
              "float_feature_index":5,
              "split_index":188,
              "split_type":"FloatFeature"
            },
            {
              "border":36.5,
              "float_feature_index":0,
              "split_index":29,
              "split_type":"FloatFeature"
            },
            {
              "border":30.25,
              "float_feature_index":0,
              "split_index":25,
              "split_type":"FloatFeature"
            },
            {
              "border":0.5445096492767334,
              "float_feature_index":6,
              "split_index":254,
              "split_type":"FloatFeature"
            },
            {
              "border":0.31077262759208679,
              "float_feature_index":10,
              "split_index":348,
              "split_type":"FloatFeature"
            },
            {
              "border":0.395652174949646,
              "float_feature_index":7,
              "split_index":287,
              "split_type":"FloatFeature"
            }
          ]
      },
      {
        "leaf_values":
          [
            0.015934974785633341,
            0,
            -0.049306281011345411,
            0.022838436402725357,
            -0.05286567373956555,
            -0.072061099392031674,
            -0.036608795766942065,
            0.01286150430926911,
            0,
            0,
            -0.0051955230357991359,
            0,
            0,
            -0.011672856889318284,
            0.015391444478955914,
            0.015546581185047457,
            0,
            0,
            0,
            0.011660639622026795,
            0,
            -0.019974898937075183,
            -0.0028986199244119262,
            -0.011528885520264678,
            0,
            0,
            -0.018746415932973839,
            0,
            0,
            0,
            0,
            0,
            -0.016342214617849939,
            0,
            -0.075570090588184688,
            -0.02324061151317524,
            -0.028279232217186211,
            0.024840668658630452,
            -0.050373081214591567,
            0.071079422752991062,
            0,
            0,
            -0.01329908167378659,
            0,
            -0.0095245704245230916,
            0.0075415258867697612,
            0.0069201192159664658,
            0.072602229365006959,
            0,
            0,
            0,
            0,
            -0.008414699825912305,
            0,
            -0.017984323298043108,
            0.015247501274427951,
            0,
            0,
            0,
            0,
            0,
            0,
            -0.038116655783072606,
            -0.0009882858853347404
          ],
        "leaf_weights":
          [
            1,
            0,
            130,
            39,
            17,
            20,
            45,
            36,
            0,
            0,
            4,
            0,
            0,
            1,
            1,
            4,
            0,
            0,
            0,
            1,
            0,
            2,
            3,
            1,
            0,
            0,
            2,
            0,
            0,
            0,
            0,
            0,
            2,
            0,
            29,
            6,
            8,
            9,
            86,
            53,
            0,
            0,
            7,
            0,
            1,
            1,
            76,
            61,
            0,
            0,
            0,
            0,
            1,
            0,
            5,
            2,
            0,
            0,
            0,
            0,
            0,
            0,
            4,
            10
          ],
        "splits":
          [
            {
              "border":0.58719754219055176,
              "float_feature_index":5,
              "split_index":189,
              "split_type":"FloatFeature"
            },
            {
              "border":0.19386227428913116,
              "float_feature_index":8,
              "split_index":299,
              "split_type":"FloatFeature"
            },
            {
              "border":8.6729001998901367,
              "float_feature_index":1,
              "split_index":52,
              "split_type":"FloatFeature"
            },
            {
              "border":0.37268519401550293,
              "float_feature_index":9,
              "split_index":341,
              "split_type":"FloatFeature"
            },
            {
              "border":0.55086207389831543,
              "float_feature_index":6,
              "split_index":255,
              "split_type":"FloatFeature"
            },
            {
              "border":0.2569769024848938,
              "float_feature_index":3,
              "split_index":101,
              "split_type":"FloatFeature"
            }
          ]
      },
      {
        "leaf_values":
          [
            0,
            0,
            0,
            0,
            0.012088635064865797,
            0,
            0,
            0,
            -0.045323541558927018,
            0.061310576623744797,
            0,
            0,
            -0.033305379904456658,
            -0.0052628332572907085,
            0,
            0,
            -0.04724913873997702,
            0,
            0.017107368567502088,
            0,
            -0.022199777000059283,
            0,
            0.014193238110228325,
            0,
            -0.0070180915082171287,
            0.018930041150715081,
            -0.0035871790583669946,
            0.013558600376543802,
            0,
            0.025843263952180302,
            -0.0077651114716327501,
            0.0027000194598376854,
            0.010071106468107114,
            0,
            0,
            0,
            -0.0086661259320415848,
            0,
            0,
            0,
            -0.04989484956541846,
            -0.004808537003056417,
            0,
            0,
            0.02959292836448614,
            -0.027666706345164067,
            0,
            0,
            -0.045049704379570558,
            0,
            0.026485014995939492,
            0,
            -0.047778741371658044,
            0,
            0.00067946715890160943,
            0,
            -0.050265667129575982,
            0.011697447760052271,
            -0.0167593555391451,
            0.051434535259440986,
            -0.054725133057749356,
            0.020356358426747802,
            -0.019572407483874298,
            0.052868052541479721
          ],
        "leaf_weights":
          [
            0,
            0,
            0,
            0,
            1,
            0,
            0,
            0,
            28,
            13,
            0,
            0,
            8,
            6,
            0,
            0,
            11,
            0,
            3,
            0,
            20,
            0,
            1,
            0,
            1,
            5,
            5,
            2,
            0,
            7,
            3,
            3,
            2,
            0,
            0,
            0,
            1,
            0,
            0,
            0,
            29,
            19,
            0,
            0,
            21,
            15,
            0,
            0,
            17,
            0,
            6,
            0,
            57,
            0,
            21,
            0,
            18,
            22,
            11,
            20,
            117,
            77,
            48,
            50
          ],
        "splits":
          [
            {
              "border":0.6267857551574707,
              "float_feature_index":5,
              "split_index":192,
              "split_type":"FloatFeature"
            },
            {
              "border":0.36375659704208374,
              "float_feature_index":9,
              "split_index":340,
              "split_type":"FloatFeature"
            },
            {
              "border":0.34719601273536682,
              "float_feature_index":7,
              "split_index":267,
              "split_type":"FloatFeature"
            },
            {
              "border":0.16967649757862091,
              "float_feature_index":5,
              "split_index":153,
              "split_type":"FloatFeature"
            },
            {
              "border":0.30401003360748291,
              "float_feature_index":9,
              "split_index":309,
              "split_type":"FloatFeature"
            },
            {
              "border":0.31235861778259277,
              "float_feature_index":10,
              "split_index":349,
              "split_type":"FloatFeature"
            }
          ]
      },
      {
        "leaf_values":
          [
            -0.055606922892645586,
            0,
            -0.030259398546683032,
            0,
            -0.032955369570576841,
            0,
            -0.016402730398166841,
            0,
            -0.021631110365506068,
            0.032704904649122707,
            0.0081385375267297774,
            0.013642155762764488,
            0.02266529035752736,
            -0.040810372065506618,
            0,
            0.056441799383523422,
            0,
            0,
            -0.0085370176744891599,
            0,
            -0.0022026822694142458,
            0,
            -0.020818085967951361,
            0,
            0,
            0.009854534344974044,
            0,
            0,
            0,
            0.041530465036301631,
            0,
            0.030748851491599189,
            -0.037142566887394347,
            0,
            -0.02348153079454136,
            0,
            -0.055905967545364865,
            0,
            -0.010596148947764353,
            0,
            -0.004507719473191822,
            -0.011726380948839444,
            -0.011350694529639422,
            0.051139625410784061,
            -0.012847461068965008,
            -0.017957020471412767,
            -0.05197816281100958,
            0.065791450134271484,
            0,
            0,
            0.023304199784786744,
            0,
            0.005949185204633496,
            0,
            -0.020208342258656149,
            0,
            0,
            0.0096983119327911579,
            0,
            0.029737664410574721,
            0,
            0.0098635154817547695,
            0,
            0.036321461506176676
          ],
        "leaf_weights":
          [
            57,
            0,
            18,
            0,
            62,
            0,
            16,
            0,
            8,
            27,
            3,
            9,
            7,
            38,
            0,
            13,
            0,
            0,
            1,
            0,
            6,
            0,
            6,
            0,
            0,
            1,
            0,
            0,
            0,
            6,
            0,
            5,
            20,
            0,
            27,
            0,
            80,
            0,
            66,
            0,
            7,
            18,
            8,
            19,
            15,
            33,
            10,
            44,
            0,
            0,
            2,
            0,
            5,
            0,
            11,
            0,
            0,
            1,
            0,
            6,
            0,
            1,
            0,
            12
          ],
        "splits":
          [
            {
              "border":0.6449580192565918,
              "float_feature_index":5,
              "split_index":194,
              "split_type":"FloatFeature"
            },
            {
              "border":0.47972601652145386,
              "float_feature_index":3,
              "split_index":119,
              "split_type":"FloatFeature"
            },
            {
              "border":0.3482787013053894,
              "float_feature_index":7,
              "split_index":270,
              "split_type":"FloatFeature"
            },
            {
              "border":0.24744898080825806,
              "float_feature_index":5,
              "split_index":174,
              "split_type":"FloatFeature"
            },
            {
              "border":0.70833337306976318,
              "float_feature_index":8,
              "split_index":302,
              "split_type":"FloatFeature"
            },
            {
              "border":0.30998653173446655,
              "float_feature_index":9,
              "split_index":319,
              "split_type":"FloatFeature"
            }
          ]
      },
      {
        "leaf_values":
          [
            -0.034099655294978576,
            0,
            0.010908124539810103,
            0,
            -0.042511137968806262,
            -0.021780898381076077,
            -0.015510323960357373,
            0.021810161742137436,
            -0.01457798920998387,
            0,
            0.0040325217411292889,
            0,
            0,
            0.012023321102960369,
            0.0150531402503069,
            -7.0665966349951138e-05,
            -0.041488805637815651,
            0,
            -0.00587680548362895,
            0,
            -0.01384280896567803,
            0.00058311402627751416,
            -0.0092408675153895607,
            0.060798820485373925,
            -0.025233106772236103,
            0,
            -0.0056295972196413651,
            0,
            -0.0018885894553020781,
            -0.012355904896185484,
            0.0065869493818711961,
            0.0221021147919911,
            0.021935005157921853,
            0,
            0.045801358549205605,
            0,
            0.01635936413376202,
            0.0068750534078395155,
            0.028083652247432915,
            0.010520061019211234,
            0,
            0,
            0,
            0,
            0,
            0,
            0,
            0.006477022032257404,
            -0.023638088409113057,
            0,
            0.040548371881471812,
            0,
            -0.015769072482475492,
            0.0036408574793377374,
            0,
            0.048938436094397679,
            -0.0092597595902324994,
            0,
            0,
            0,
            0,
            0.0047729130821150909,
            0,
            0.011781487211017237
          ],
        "leaf_weights":
          [
            131,
            0,
            50,
            0,
            25,
            10,
            7,
            10,
            9,
            0,
            7,
            0,
            0,
            1,
            2,
            3,
            179,
            0,
            50,
            0,
            24,
            29,
            11,
            19,
            8,
            0,
            4,
            0,
            6,
            4,
            1,
            4,
            5,
            0,
            7,
            0,
            3,
            4,
            4,
            5,
            0,
            0,
            0,
            0,
            0,
            0,
            0,
            1,
            7,
            0,
            7,
            0,
            2,
            11,
            0,
            13,
            1,
            0,
            0,
            0,
            0,
            2,
            0,
            2
          ],
        "splits":
          [
            {
              "border":51.670848846435547,
              "float_feature_index":1,
              "split_index":79,
              "split_type":"FloatFeature"
            },
            {
              "border":0.69905662536621094,
              "float_feature_index":5,
              "split_index":197,
              "split_type":"FloatFeature"
            },
            {
              "border":27.735401153564453,
              "float_feature_index":1,
              "split_index":75,
              "split_type":"FloatFeature"
            },
            {
              "border":0.57957470417022705,
              "float_feature_index":10,
              "split_index":376,
              "split_type":"FloatFeature"
            },
            {
              "border":21.5,
              "float_feature_index":0,
              "split_index":18,
              "split_type":"FloatFeature"
            },
            {
              "border":0.44386225938796997,
              "float_feature_index":8,
              "split_index":300,
              "split_type":"FloatFeature"
            }
          ]
      },
      {
        "leaf_values":
          [
            -0.053458730969639337,
            0.030188519585742517,
            -0.024166111547670319,
            -0.02356227669697486,
            -0.042183897427697042,
            -0.016478512986054406,
